<?xml version="1.0"?>
<opencv_storage>
<cascade>
  <stageType>BOOST</stageType>
  <featureType>HAAR</featureType>
  <height>20</height>
  <width>20</width>
  <stageParams>
    <boostType>GAB</boostType>
    <minHitRate>9.9500000476837158e-01</minHitRate>
    <maxFalseAlarm>5.0000000000000000e-01</maxFalseAlarm>
    <weightTrimRate>9.4999999999999996e-01</weightTrimRate>
    <maxDepth>1</maxDepth>
    <maxWeakCount>100</maxWeakCount></stageParams>
  <featureParams>
    <maxCatCount>0</maxCatCount>
    <featSize>1</featSize>
    <mode>BASIC</mode></featureParams>
  <stageNum>8</stageNum>
  <stages>
    <!-- stage 0 -->
    <_>
      <maxWeakCount>3</maxWeakCount>
      <stageThreshold>-9.7530519962310791e-01</stageThreshold>
      <weakClassifiers>
        <_>
          <internalNodes>
            0 -1 1 2.1579496562480927e-01</internalNodes>
          <leafValues>
            -8.6746990680694580e-01 9.3920969963073730e-01</leafValues></_>
        <_>
          <internalNodes>
            0 -1 7 1.7785266041755676e-02</internalNodes>
          <leafValues>
            -8.0048048496246338e-01 7.9870581626892090e-01</leafValues></_>
        <_>
          <internalNodes>
            0 -1 4 5.1847487688064575e-02</internalNodes>
          <leafValues>
            -9.4892036914825439e-01 6.9264519214630127e-01</leafValues></_></weakClassifiers></_>
    <!-- stage 1 -->
    <_>
      <maxWeakCount>3</maxWeakCount>
      <stageThreshold>-7.4543815851211548e-01</stageThreshold>
      <weakClassifiers>
        <_>
          <internalNodes>
            0 -1 5 -1.0623732209205627e-01</internalNodes>
          <leafValues>
            8.7951809167861938e-01 -7.7914112806320190e-01</leafValues></_>
        <_>
          <internalNodes>
            0 -1 0 3.9890605211257935e-01</internalNodes>
          <leafValues>
            -5.8532327413558960e-01 8.5839039087295532e-01</leafValues></_>
        <_>
          <internalNodes>
            0 -1 19 -2.5449719032621942e-05</internalNodes>
          <leafValues>
            6.1902624368667603e-01 -9.6424460411071777e-01</leafValues></_></weakClassifiers></_>
    <!-- stage 2 -->
    <_>
      <maxWeakCount>2</maxWeakCount>
      <stageThreshold>-2.9122289270162582e-03</stageThreshold>
      <weakClassifiers>
        <_>
          <internalNodes>
            0 -1 1 2.8280544281005859e-01</internalNodes>
          <leafValues>
            -6.7032968997955322e-01 9.1693288087844849e-01</leafValues></_>
        <_>
          <internalNodes>
            0 -1 8 4.6616061590611935e-03</internalNodes>
          <leafValues>
            -9.1984516382217407e-01 6.6947776079177856e-01</leafValues></_></weakClassifiers></_>
    <!-- stage 3 -->
    <_>
      <maxWeakCount>3</maxWeakCount>
      <stageThreshold>3.0941995978355408e-01</stageThreshold>
      <weakClassifiers>
        <_>
          <internalNodes>
            0 -1 0 3.8548341393470764e-01</internalNodes>
          <leafValues>
            -5.9302324056625366e-01 8.2662540674209595e-01</leafValues></_>
        <_>
          <internalNodes>
            0 -1 13 2.1177991293370724e-03</internalNodes>
          <leafValues>
            -9.4365257024765015e-01 5.8851808309555054e-01</leafValues></_>
        <_>
          <internalNodes>
            0 -1 20 -8.2523823948577046e-05</internalNodes>
          <leafValues>
            4.2644715309143066e-01 -9.8172414302825928e-01</leafValues></_></weakClassifiers></_>
    <!-- stage 4 -->
    <_>
      <maxWeakCount>1</maxWeakCount>
      <stageThreshold>6.8797951936721802e-01</stageThreshold>
      <weakClassifiers>
        <_>
          <internalNodes>
            0 -1 17 -5.3239951375871897e-04</internalNodes>
          <leafValues>
            -1. 6.8797951936721802e-01</leafValues></_></weakClassifiers></_>
    <!-- stage 5 -->
    <_>
      <maxWeakCount>4</maxWeakCount>
      <stageThreshold>-3.0678176879882812e-01</stageThreshold>
      <weakClassifiers>
        <_>
          <internalNodes>
            0 -1 16 -6.6155873355455697e-05</internalNodes>
          <leafValues>
            7.2105264663696289e-01 -9.4782608747482300e-01</leafValues></_>
        <_>
          <internalNodes>
            0 -1 11 3.0416440218687057e-02</internalNodes>
          <leafValues>
            -6.0880082845687866e-01 8.4391045570373535e-01</leafValues></_>
        <_>
          <internalNodes>
            0 -1 10 -1.2368723750114441e-02</internalNodes>
          <leafValues>
            7.4969023466110229e-01 -7.1014237403869629e-01</leafValues></_>
        <_>
          <internalNodes>
            0 -1 17 9.3893066514283419e-04</internalNodes>
          <leafValues>
            5.0015491247177124e-01 -9.6185827255249023e-01</leafValues></_></weakClassifiers></_>
    <!-- stage 6 -->
    <_>
      <maxWeakCount>4</maxWeakCount>
      <stageThreshold>-5.1808261871337891e-01</stageThreshold>
      <weakClassifiers>
        <_>
          <internalNodes>
            0 -1 12 7.1251913905143738e-03</internalNodes>
          <leafValues>
            -7.1232879161834717e-01 7.7077364921569824e-01</leafValues></_>
        <_>
          <internalNodes>
            0 -1 15 -5.1839480875059962e-05</internalNodes>
          <leafValues>
            5.1505279541015625e-01 -9.1675251722335815e-01</leafValues></_>
        <_>
          <internalNodes>
            0 -1 3 -1.5462476015090942e-01</internalNodes>
          <leafValues>
            5.6722480058670044e-01 -7.1989536285400391e-01</leafValues></_>
        <_>
          <internalNodes>
            0 -1 9 -5.5359350517392159e-04</internalNodes>
          <leafValues>
            -7.9005742073059082e-01 3.9908868074417114e-01</leafValues></_></weakClassifiers></_>
    <!-- stage 7 -->
    <_>
      <maxWeakCount>4</maxWeakCount>
      <stageThreshold>-3.3364114165306091e-01</stageThreshold>
      <weakClassifiers>
        <_>
          <internalNodes>
            0 -1 18 -3.9268287946470082e-04</internalNodes>
          <leafValues>
            -9.5348834991455078e-01 6.0391199588775635e-01</leafValues></_>
        <_>
          <internalNodes>
            0 -1 2 2.5375571101903915e-02</internalNodes>
          <leafValues>
            -5.1442778110504150e-01 8.2389938831329346e-01</leafValues></_>
        <_>
          <internalNodes>
            0 -1 14 -1.0029162513092160e-04</internalNodes>
          <leafValues>
            -9.4848483800888062e-01 4.2805278301239014e-01</leafValues></_>
        <_>
          <internalNodes>
            0 -1 6 -5.4189607501029968e-02</internalNodes>
          <leafValues>
            7.0622223615646362e-01 -5.3744322061538696e-01</leafValues></_></weakClassifiers></_></stages>
  <features>
    <_>
      <rects>
        <_>
          1 3 18 13 -1.</_>
        <_>
          7 3 6 13 3.</_></rects>
      <tilted>0</tilted></_>
    <_>
      <rects>
        <_>
          3 3 15 13 -1.</_>
        <_>
          8 3 5 13 3.</_></rects>
      <tilted>0</tilted></_>
    <_>
      <rects>
        <_>
          3 7 4 6 -1.</_>
        <_>
          5 7 2 6 2.</_></rects>
      <tilted>0</tilted></_>
    <_>
      <rects>
        <_>
          4 5 13 14 -1.</_>
        <_>
          4 12 13 7 2.</_></rects>
      <tilted>0</tilted></_>
    <_>
      <rects>
        <_>
          4 8 12 7 -1.</_>
        <_>
          8 8 4 7 3.</_></rects>
      <tilted>0</tilted></_>
    <_>
      <rects>
        <_>
          6 4 7 16 -1.</_>
        <_>
          6 12 7 8 2.</_></rects>
      <tilted>0</tilted></_>
    <_>
      <rects>
        <_>
          6 13 8 6 -1.</_>
        <_>
          6 16 8 3 2.</_></rects>
      <tilted>0</tilted></_>
    <_>
      <rects>
        <_>
          7 1 5 9 -1.</_>
        <_>
          7 4 5 3 3.</_></rects>
      <tilted>0</tilted></_>
    <_>
      <rects>
        <_>
          7 2 7 6 -1.</_>
        <_>
          7 4 7 2 3.</_></rects>
      <tilted>0</tilted></_>
    <_>
      <rects>
        <_>
          7 12 3 4 -1.</_>
        <_>
          8 12 1 4 3.</_></rects>
      <tilted>0</tilted></_>
    <_>
      <rects>
        <_>
          7 14 5 4 -1.</_>
        <_>
          7 16 5 2 2.</_></rects>
      <tilted>0</tilted></_>
    <_>
      <rects>
        <_>
          8 0 4 9 -1.</_>
        <_>
          8 3 4 3 3.</_></rects>
      <tilted>0</tilted></_>
    <_>
      <rects>
        <_>
          8 1 4 6 -1.</_>
        <_>
          8 3 4 2 3.</_></rects>
      <tilted>0</tilted></_>
    <_>
      <rects>
        <_>
          8 4 6 6 -1.</_>
        <_>
          8 6 6 2 3.</_></rects>
      <tilted>0</tilted></_>
    <_>
      <rects>
        <_>
          9 4 3 3 -1.</_>
        <_>
          9 5 3 1 3.</_></rects>
      <tilted>0</tilted></_>
    <_>
      <rects>
        <_>
          9 6 1 2 -1.</_>
        <_>
          9 7 1 1 2.</_></rects>
      <tilted>0</tilted></_>
    <_>
      <rects>
        <_>
          9 7 1 2 -1.</_>
        <_>
          9 8 1 1 2.</_></rects>
      <tilted>0</tilted></_>
    <_>
      <rects>
        <_>
          9 7 2 3 -1.</_>
        <_>
          9 8 2 1 3.</_></rects>
      <tilted>0</tilted></_>
    <_>
      <rects>
        <_>
          9 8 1 3 -1.</_>
        <_>
          9 9 1 1 3.</_></rects>
      <tilted>0</tilted></_>
    <_>
      <rects>
        <_>
          10 7 1 2 -1.</_>
        <_>
          10 8 1 1 2.</_></rects>
      <tilted>0</tilted></_>
    <_>
      <rects>
        <_>
          10 9 1 2 -1.</_>
        <_>
          10 10 1 1 2.</_></rects>
      <tilted>0</tilted></_></features></cascade>
</opencv_storage>
