<?xml version="1.0"?>
<opencv_storage>
<cascade>
  <stageType>BOOST</stageType>
  <featureType>HAAR</featureType>
  <height>20</height>
  <width>20</width>
  <stageParams>
    <boostType>GAB</boostType>
    <minHitRate>9.9500000476837158e-01</minHitRate>
    <maxFalseAlarm>5.0000000000000000e-01</maxFalseAlarm>
    <weightTrimRate>9.4999999999999996e-01</weightTrimRate>
    <maxDepth>1</maxDepth>
    <maxWeakCount>100</maxWeakCount></stageParams>
  <featureParams>
    <maxCatCount>0</maxCatCount>
    <featSize>1</featSize>
    <mode>BASIC</mode></featureParams>
  <stageNum>8</stageNum>
  <stages>
    <!-- stage 0 -->
    <_>
      <maxWeakCount>2</maxWeakCount>
      <stageThreshold>-1.0797864943742752e-01</stageThreshold>
      <weakClassifiers>
        <_>
          <internalNodes>
            0 -1 4 3.3752813935279846e-01</internalNodes>
          <leafValues>
            -9.2971885204315186e-01 9.6107786893844604e-01</leafValues></_>
        <_>
          <internalNodes>
            0 -1 16 -1.6673425212502480e-02</internalNodes>
          <leafValues>
            8.2174021005630493e-01 -8.3740669488906860e-01</leafValues></_></weakClassifiers></_>
    <!-- stage 1 -->
    <_>
      <maxWeakCount>2</maxWeakCount>
      <stageThreshold>-1.7686809599399567e-01</stageThreshold>
      <weakClassifiers>
        <_>
          <internalNodes>
            0 -1 6 4.1808575391769409e-01</internalNodes>
          <leafValues>
            -9.0010195970535278e-01 9.3263989686965942e-01</leafValues></_>
        <_>
          <internalNodes>
            0 -1 17 1.5593405812978745e-02</internalNodes>
          <leafValues>
            -8.6152404546737671e-01 7.2323381900787354e-01</leafValues></_></weakClassifiers></_>
    <!-- stage 2 -->
    <_>
      <maxWeakCount>2</maxWeakCount>
      <stageThreshold>-1.3484960794448853e-01</stageThreshold>
      <weakClassifiers>
        <_>
          <internalNodes>
            0 -1 2 4.8535346984863281e-01</internalNodes>
          <leafValues>
            -7.6683419942855835e-01 8.7930172681808472e-01</leafValues></_>
        <_>
          <internalNodes>
            0 -1 10 9.6089102327823639e-02</internalNodes>
          <leafValues>
            -9.0906995534896851e-01 6.3198459148406982e-01</leafValues></_></weakClassifiers></_>
    <!-- stage 3 -->
    <_>
      <maxWeakCount>4</maxWeakCount>
      <stageThreshold>-5.3856414556503296e-01</stageThreshold>
      <weakClassifiers>
        <_>
          <internalNodes>
            0 -1 6 4.8781985044479370e-01</internalNodes>
          <leafValues>
            -7.8787881135940552e-01 7.9874211549758911e-01</leafValues></_>
        <_>
          <internalNodes>
            0 -1 13 -4.1266731917858124e-02</internalNodes>
          <leafValues>
            5.3501623868942261e-01 -8.2493764162063599e-01</leafValues></_>
        <_>
          <internalNodes>
            0 -1 0 1.9797974824905396e-01</internalNodes>
          <leafValues>
            -6.1913347244262695e-01 6.1642640829086304e-01</leafValues></_>
        <_>
          <internalNodes>
            0 -1 21 4.8841908574104309e-03</internalNodes>
          <leafValues>
            -9.0855914354324341e-01 3.3343189954757690e-01</leafValues></_></weakClassifiers></_>
    <!-- stage 4 -->
    <_>
      <maxWeakCount>4</maxWeakCount>
      <stageThreshold>-7.5722920894622803e-01</stageThreshold>
      <weakClassifiers>
        <_>
          <internalNodes>
            0 -1 8 3.4695655107498169e-01</internalNodes>
          <leafValues>
            -8.8764047622680664e-01 8.0086046457290649e-01</leafValues></_>
        <_>
          <internalNodes>
            0 -1 5 9.5196664333343506e-02</internalNodes>
          <leafValues>
            -5.5955243110656738e-01 6.2457185983657837e-01</leafValues></_>
        <_>
          <internalNodes>
            0 -1 23 -4.3965352233499289e-04</internalNodes>
          <leafValues>
            -8.1349033117294312e-01 3.9248499274253845e-01</leafValues></_>
        <_>
          <internalNodes>
            0 -1 26 -3.6432250635698438e-04</internalNodes>
          <leafValues>
            -9.8272991180419922e-01 2.9747873544692993e-01</leafValues></_></weakClassifiers></_>
    <!-- stage 5 -->
    <_>
      <maxWeakCount>5</maxWeakCount>
      <stageThreshold>-3.8286137580871582e-01</stageThreshold>
      <weakClassifiers>
        <_>
          <internalNodes>
            0 -1 7 6.8359613418579102e-02</internalNodes>
          <leafValues>
            -5.7186079025268555e-01 7.0988041162490845e-01</leafValues></_>
        <_>
          <internalNodes>
            0 -1 20 3.7136001046746969e-03</internalNodes>
          <leafValues>
            -8.6725109815597534e-01 4.3017971515655518e-01</leafValues></_>
        <_>
          <internalNodes>
            0 -1 11 2.5296288728713989e-01</internalNodes>
          <leafValues>
            -6.7201495170593262e-01 4.9013417959213257e-01</leafValues></_>
        <_>
          <internalNodes>
            0 -1 15 -1.8221091479063034e-02</internalNodes>
          <leafValues>
            3.6159873008728027e-01 -8.1300538778305054e-01</leafValues></_>
        <_>
          <internalNodes>
            0 -1 24 1.6794211114756763e-04</internalNodes>
          <leafValues>
            2.0451758801937103e-01 -9.7833299636840820e-01</leafValues></_></weakClassifiers></_>
    <!-- stage 6 -->
    <_>
      <maxWeakCount>5</maxWeakCount>
      <stageThreshold>-4.2409300804138184e-01</stageThreshold>
      <weakClassifiers>
        <_>
          <internalNodes>
            0 -1 1 5.5440801382064819e-01</internalNodes>
          <leafValues>
            -6.2362867593765259e-01 6.7541480064392090e-01</leafValues></_>
        <_>
          <internalNodes>
            0 -1 18 1.2996435165405273e-02</internalNodes>
          <leafValues>
            -8.5219138860702515e-01 3.8517510890960693e-01</leafValues></_>
        <_>
          <internalNodes>
            0 -1 28 6.5453755669295788e-03</internalNodes>
          <leafValues>
            -6.9826048612594604e-01 4.3516448140144348e-01</leafValues></_>
        <_>
          <internalNodes>
            0 -1 9 4.1116304695606232e-02</internalNodes>
          <leafValues>
            -8.0734610557556152e-01 3.0839747190475464e-01</leafValues></_>
        <_>
          <internalNodes>
            0 -1 12 2.5596139021217823e-03</internalNodes>
          <leafValues>
            -9.2920142412185669e-01 2.2895613312721252e-01</leafValues></_></weakClassifiers></_>
    <!-- stage 7 -->
    <_>
      <maxWeakCount>7</maxWeakCount>
      <stageThreshold>-8.5830962657928467e-01</stageThreshold>
      <weakClassifiers>
        <_>
          <internalNodes>
            0 -1 14 -6.1154784634709358e-04</internalNodes>
          <leafValues>
            -8.5000002384185791e-01 5.6371682882308960e-01</leafValues></_>
        <_>
          <internalNodes>
            0 -1 3 6.0076981782913208e-02</internalNodes>
          <leafValues>
            -4.9340897798538208e-01 5.8171451091766357e-01</leafValues></_>
        <_>
          <internalNodes>
            0 -1 19 9.1075040400028229e-03</internalNodes>
          <leafValues>
            -7.1148544549942017e-01 4.1728696227073669e-01</leafValues></_>
        <_>
          <internalNodes>
            0 -1 6 5.7773441076278687e-01</internalNodes>
          <leafValues>
            -6.3511705398559570e-01 3.9171853661537170e-01</leafValues></_>
        <_>
          <internalNodes>
            0 -1 22 8.2650664262473583e-04</internalNodes>
          <leafValues>
            -8.3892107009887695e-01 2.5795376300811768e-01</leafValues></_>
        <_>
          <internalNodes>
            0 -1 27 9.8095006251242012e-05</internalNodes>
          <leafValues>
            2.2918231785297394e-01 -8.5732197761535645e-01</leafValues></_>
        <_>
          <internalNodes>
            0 -1 25 1.5937941498123109e-04</internalNodes>
          <leafValues>
            2.1579340100288391e-01 -9.5214593410491943e-01</leafValues></_></weakClassifiers></_></stages>
  <features>
    <_>
      <rects>
        <_>
          0 4 10 12 -1.</_>
        <_>
          5 4 5 12 2.</_></rects>
      <tilted>0</tilted></_>
    <_>
      <rects>
        <_>
          1 2 18 16 -1.</_>
        <_>
          7 2 6 16 3.</_></rects>
      <tilted>0</tilted></_>
    <_>
      <rects>
        <_>
          1 4 18 14 -1.</_>
        <_>
          7 4 6 14 3.</_></rects>
      <tilted>0</tilted></_>
    <_>
      <rects>
        <_>
          1 5 6 8 -1.</_>
        <_>
          4 5 3 8 2.</_></rects>
      <tilted>0</tilted></_>
    <_>
      <rects>
        <_>
          1 5 18 13 -1.</_>
        <_>
          7 5 6 13 3.</_></rects>
      <tilted>0</tilted></_>
    <_>
      <rects>
        <_>
          2 3 6 14 -1.</_>
        <_>
          5 3 3 14 2.</_></rects>
      <tilted>0</tilted></_>
    <_>
      <rects>
        <_>
          2 4 18 14 -1.</_>
        <_>
          8 4 6 14 3.</_></rects>
      <tilted>0</tilted></_>
    <_>
      <rects>
        <_>
          2 6 6 11 -1.</_>
        <_>
          5 6 3 11 2.</_></rects>
      <tilted>0</tilted></_>
    <_>
      <rects>
        <_>
          2 7 18 11 -1.</_>
        <_>
          8 7 6 11 3.</_></rects>
      <tilted>0</tilted></_>
    <_>
      <rects>
        <_>
          5 1 10 12 -1.</_>
        <_>
          5 5 10 4 3.</_></rects>
      <tilted>0</tilted></_>
    <_>
      <rects>
        <_>
          5 2 10 18 -1.</_>
        <_>
          5 8 10 6 3.</_></rects>
      <tilted>0</tilted></_>
    <_>
      <rects>
        <_>
          5 6 15 12 -1.</_>
        <_>
          10 6 5 12 3.</_></rects>
      <tilted>0</tilted></_>
    <_>
      <rects>
        <_>
          5 11 9 2 -1.</_>
        <_>
          8 11 3 2 3.</_></rects>
      <tilted>0</tilted></_>
    <_>
      <rects>
        <_>
          5 14 9 6 -1.</_>
        <_>
          5 17 9 3 2.</_></rects>
      <tilted>0</tilted></_>
    <_>
      <rects>
        <_>
          6 11 7 6 -1.</_>
        <_>
          6 13 7 2 3.</_></rects>
      <tilted>0</tilted></_>
    <_>
      <rects>
        <_>
          7 16 5 4 -1.</_>
        <_>
          7 18 5 2 2.</_></rects>
      <tilted>0</tilted></_>
    <_>
      <rects>
        <_>
          7 16 6 4 -1.</_>
        <_>
          7 18 6 2 2.</_></rects>
      <tilted>0</tilted></_>
    <_>
      <rects>
        <_>
          8 1 5 6 -1.</_>
        <_>
          8 4 5 3 2.</_></rects>
      <tilted>0</tilted></_>
    <_>
      <rects>
        <_>
          8 11 4 9 -1.</_>
        <_>
          8 14 4 3 3.</_></rects>
      <tilted>0</tilted></_>
    <_>
      <rects>
        <_>
          8 14 4 6 -1.</_>
        <_>
          8 16 4 2 3.</_></rects>
      <tilted>0</tilted></_>
    <_>
      <rects>
        <_>
          9 1 3 4 -1.</_>
        <_>
          9 3 3 2 2.</_></rects>
      <tilted>0</tilted></_>
    <_>
      <rects>
        <_>
          9 2 3 9 -1.</_>
        <_>
          9 5 3 3 3.</_></rects>
      <tilted>0</tilted></_>
    <_>
      <rects>
        <_>
          9 4 4 2 -1.</_>
        <_>
          9 5 4 1 2.</_></rects>
      <tilted>0</tilted></_>
    <_>
      <rects>
        <_>
          9 10 4 3 -1.</_>
        <_>
          11 10 2 3 2.</_></rects>
      <tilted>0</tilted></_>
    <_>
      <rects>
        <_>
          9 11 3 4 -1.</_>
        <_>
          9 13 3 2 2.</_></rects>
      <tilted>0</tilted></_>
    <_>
      <rects>
        <_>
          9 13 3 2 -1.</_>
        <_>
          9 14 3 1 2.</_></rects>
      <tilted>0</tilted></_>
    <_>
      <rects>
        <_>
          10 5 3 9 -1.</_>
        <_>
          10 8 3 3 3.</_></rects>
      <tilted>0</tilted></_>
    <_>
      <rects>
        <_>
          10 8 1 6 -1.</_>
        <_>
          10 11 1 3 2.</_></rects>
      <tilted>0</tilted></_>
    <_>
      <rects>
        <_>
          11 9 6 3 -1.</_>
        <_>
          13 9 2 3 3.</_></rects>
      <tilted>0</tilted></_></features></cascade>
</opencv_storage>
